{"type":"NeuralNetwork","sizes":[50,3,6],"layers":[{"weights":[],"biases":[]},{"weights":[[44.37553405761719,-9.696706771850586,-0.17679737508296967,0.6752453446388245,47.42860412597656,2.9288415908813477,0.9941567182540894,6.910754203796387,15.416501998901367,-12.367862701416016,27.765836715698242,-1.91498863697052,-118.53131866455078,-23.08346176147461,-4.961899757385254,30.34107208251953,-22.03274917602539,11.166703224182129,30.216209411621094,0.8203004598617554,11.38814926147461,19.946889877319336,-3.8147130012512207,-3.862856149673462,-2.322079658508301,17.58086395263672,-2.225550889968872,14.58309555053711,-15.233356475830078,-6.295901298522949,-10.176769256591797,29.742618560791016,-3.3798141479492188,-15.396820068359375,6.74439001083374,-18.4162654876709,20.036588668823242,-17.603445053100586,35.90509033203125,-9.632503509521484,15.458162307739258,-24.40464973449707,-30.928110122680664,41.977108001708984,-39.32489013671875,14.619915008544922,21.22052001953125,3.2559783458709717,-0.3574458658695221,0.1287643164396286],[-27.415424346923828,9.695927619934082,16.98737335205078,-10.948224067687988,3.6404664516448975,32.51575469970703,22.950605392456055,-5.548707485198975,-3.9816548824310303,3.3564834594726562,-11.043399810791016,-13.16930866241455,-45.3913688659668,36.608863830566406,4.511762619018555,-11.495996475219727,1.0748780965805054,-19.524585723876953,16.24690055847168,-13.93398666381836,-13.977788925170898,-28.693817138671875,13.413026809692383,-0.598936915397644,26.190582275390625,-10.209394454956055,10.92739486694336,-5.464306831359863,-7.289959907531738,18.944883346557617,6.86463737487793,14.520685195922852,-12.532389640808105,32.747947692871094,-26.589221954345703,13.208735466003418,23.2110595703125,-4.364302635192871,22.058149337768555,4.712406158447266,16.77153968811035,-3.128572463989258,70.1655502319336,26.503925323486328,20.55965805053711,21.795238494873047,3.793671131134033,-0.04322638735175133,-0.11636434495449066,0.10055137425661087],[-3.681917905807495,-1.6173558235168457,0.9791306853294373,15.222737312316895,1.9670566320419312,1.3590096235275269,-3.017080783843994,-7.257099628448486,-2.3019933700561523,-4.861477375030518,5.01211404800415,-2.3608558177948,-131.17190551757812,4.234330654144287,-3.9398210048675537,3.4391510486602783,11.635083198547363,3.507293939590454,3.035200834274292,-4.8724188804626465,-5.90900182723999,10.449972152709961,-4.112124919891357,6.782862663269043,-5.863106727600098,9.924698829650879,4.203225135803223,3.534135103225708,-14.086650848388672,-4.06967830657959,10.562300682067871,-1.5816806554794312,0.9937484264373779,-2.3142058849334717,-0.29376450181007385,11.258636474609375,-7.813834190368652,-0.5034684538841248,-7.588319778442383,4.585358619689941,-3.879275321960449,13.823525428771973,-12.998629570007324,-65.92171478271484,-5.895463943481445,-17.405563354492188,26.270267486572266,3.6401467323303223,0.08228045701980591,0.20983542501926422]],"biases":[-32.28001403808594,-25.245481491088867,17.823415756225586]},{"weights":[[15.8754301071167,29.015478134155273,32.759498596191406],[-21.649404525756836,-46.174625396728516,50.83137130737305],[1.3565869331359863,-0.3821942210197449,0.253354012966156],[2.0053913593292236,-15.200714111328125,-5.500250339508057],[-0.7549816370010376,-2.0865230560302734,-2.374537229537964],[-24.974742889404297,23.180334091186523,-40.74098205566406]],"biases":[-47.02578353881836,-35.662986755371094,-4.0555949211120605,-0.9128130674362183,-0.7567740678787231,-0.4300675392150879]}],"inputLookup":{"discardPile0":0,"player_AI_OpenCard0":1,"player_AI_OpenCard1":2,"player_AI_NumberOfClosedCards":3,"player_0_OpenCard0":4,"player_0_OpenCard1":5,"player_0_NumberOfClosedCards":6,"discardPile1":7,"player_AI_OpenCard2":8,"discardPile2":9,"player_0_OpenCard2":10,"discardPile3":11,"drawnClosedCard":12,"player_AI_OpenCard3":13,"discardPile4":14,"player_0_OpenCard3":15,"player_AI_OpenCard4":16,"discardPile5":17,"player_0_OpenCard4":18,"discardPile6":19,"player_AI_OpenCard5":20,"discardPile7":21,"player_0_OpenCard5":22,"discardPile8":23,"discardPile9":24,"discardPile10":25,"player_AI_OpenCard6":26,"player_0_OpenCard6":27,"discardPile11":28,"player_AI_OpenCard7":29,"discardPile12":30,"player_0_OpenCard7":31,"player_AI_OpenCard8":32,"player_0_OpenCard8":33,"discardPile13":34,"player_AI_OpenCard9":35,"discardPile14":36,"player_0_OpenCard9":37,"player_AI_OpenCard10":38,"discardPile15":39,"player_0_OpenCard10":40,"discardPile16":41,"player_AI_OpenCard11":42,"player_0_OpenCard11":43,"discardPile17":44,"discardPile18":45,"discardPile19":46,"discardPile20":47,"discardPile21":48,"discardPile22":49},"inputLookupLength":50,"outputLookup":{"SWITCH_OPEN_DECK_CARD_WITH_HIGHEST_OPEN_HAND_CARD":0,"SWITCH_OPEN_DECK_CARD_WITH_CLOSED_HAND_CARD":1,"DRAW_CLOSED_DECK_CARD":2,"DISCARD_DRAWN_DECK_CARD_AND_OPEN_CLOSED_HAND_CARD":3,"SWITCH_DRAWN_DECK_CARD_WITH_CLOSED_HAND_CARD":4,"SWITCH_DRAWN_DECK_CARD_WITH_HIGHEST_OPEN_HAND_CARD":5},"outputLookupLength":6,"options":{"inputSize":0,"outputSize":0,"binaryThresh":0.5,"hiddenLayers":[3],"log":true,"errorThresh":0.0005,"logPeriod":100,"activation":"sigmoid","leakyReluAlpha":0.01},"trainOpts":{"activation":"sigmoid","iterations":20000,"errorThresh":0.0005,"log":true,"logPeriod":100,"leakyReluAlpha":0.01,"learningRate":0.3,"momentum":0.1,"callbackPeriod":10,"timeout":"Infinity","beta1":0.9,"beta2":0.999,"epsilon":1e-8}}