{"type":"NeuralNetwork","sizes":[44,3,6],"layers":[{"weights":[],"biases":[]},{"weights":[[1.7181456089019775,0.68879634141922,0.9235907793045044,0.40249863266944885,0.47251391410827637,-0.3265172839164734,-0.39336535334587097,1.554017186164856,0.012877839617431164,-0.5402314066886902,0.9131418466567993,0.8377745747566223,0.9308651089668274,-1.0420963764190674,0.1321105659008026,1.6677018404006958,-0.12196850031614304,0.11336982250213623,0.049546435475349426,0.29442355036735535,-0.3447296619415283,-0.4996500611305237,0.551954984664917,-0.3183274269104004,-1.1748324632644653,-0.25129494071006775,-0.59038245677948,0.5283870100975037,-0.9668901562690735,0.048296332359313965,0.5261855721473694,-0.5052759051322937,-1.2922430038452148,1.1273716688156128,0.3001115620136261,-0.00720658153295517,-0.7258659601211548,1.5603959560394287,-0.34303539991378784,-0.8697673082351685,1.5768998861312866,-0.9167566895484924,0.0930081382393837,0.08531463146209717],[0.057058848440647125,0.4800783395767212,-0.7419118881225586,1.6498109102249146,0.1398518979549408,1.370642900466919,0.9703969955444336,0.19652731716632843,0.2621786594390869,2.2216076850891113,-0.8492357730865479,-0.4269625246524811,-5.927684307098389,0.2731182873249054,0.4105178117752075,0.3680320084095001,-1.9497777223587036,0.32395946979522705,1.7636375427246094,-1.2434310913085938,-0.7544794082641602,0.20986607670783997,1.0369921922683716,0.352309912443161,0.20389914512634277,0.28803980350494385,0.5289559960365295,0.203948974609375,1.3331546783447266,-0.3560774624347687,0.5305525064468384,0.5776917338371277,-0.5895615816116333,-0.3198852241039276,-1.078662395477295,-2.0573225021362305,-1.6246472597122192,-0.6040659546852112,-2.1424143314361572,-0.43553104996681213,-1.5097019672393799,0.0888659730553627,-0.053774841129779816,0.0975966826081276],[-2.5349292755126953,0.34874600172042847,-0.2864706516265869,0.7746992111206055,0.0652369037270546,0.7688879370689392,1.3296244144439697,-2.1841092109680176,0.3532421588897705,4.423588752746582,-0.7503075003623962,2.0177359580993652,-2.048999309539795,0.7462974190711975,-0.2477617859840393,-0.2804476320743561,0.6936037540435791,-1.7159408330917358,-1.8099069595336914,-1.6197913885116577,-0.7739532589912415,0.44569888710975647,1.093880295753479,0.10537603497505188,1.6724815368652344,-0.5939545631408691,1.1455409526824951,0.533147931098938,0.9392256736755371,-0.11397615820169449,0.9428260922431946,0.1233353316783905,0.8639179468154907,-0.9679883718490601,-0.1854652762413025,0.2340070754289627,-0.9644551277160645,-1.4466325044631958,-0.14425303041934967,-1.0449116230010986,-1.6147966384887695,-0.19592329859733582,0.07295682281255722,-0.04864312335848808]],"biases":[0.3983284831047058,0.5999143719673157,0.6214438676834106]},{"weights":[[-4.5691962242126465,9.803523063659668,2.9099605083465576],[-1.8559575080871582,-1.2419092655181885,-1.3738033771514893],[-7.269791603088379,0.5325940251350403,2.2877871990203857],[2.4496586322784424,-1.5493940114974976,-10.011919021606445],[-1.753869652748108,-9.373199462890625,4.46112585067749],[0.9839428067207336,-2.9350790977478027,-0.9949822425842285]],"biases":[-3.75142765045166,-2.257446050643921,-0.1209905743598938,1.013959288597107,-0.6516281962394714,-1.2126585245132446]}],"inputLookup":{"discardPile0":0,"player_AI_OpenCard0":1,"player_AI_OpenCard1":2,"player_AI_NumberOfClosedCards":3,"player_0_OpenCard0":4,"player_0_OpenCard1":5,"player_0_NumberOfClosedCards":6,"discardPile1":7,"player_AI_OpenCard2":8,"discardPile2":9,"player_0_OpenCard2":10,"discardPile3":11,"drawnClosedCard":12,"player_AI_OpenCard3":13,"discardPile4":14,"player_0_OpenCard3":15,"player_AI_OpenCard4":16,"discardPile5":17,"player_0_OpenCard4":18,"discardPile6":19,"player_AI_OpenCard5":20,"discardPile7":21,"player_0_OpenCard5":22,"discardPile8":23,"discardPile9":24,"discardPile10":25,"player_AI_OpenCard6":26,"player_0_OpenCard6":27,"discardPile11":28,"player_AI_OpenCard7":29,"discardPile12":30,"player_0_OpenCard7":31,"player_AI_OpenCard8":32,"player_0_OpenCard8":33,"discardPile13":34,"player_AI_OpenCard9":35,"discardPile14":36,"player_0_OpenCard9":37,"player_AI_OpenCard10":38,"discardPile15":39,"player_0_OpenCard10":40,"discardPile16":41,"player_AI_OpenCard11":42,"player_0_OpenCard11":43},"inputLookupLength":44,"outputLookup":{"SWITCH_OPEN_DECK_CARD_WITH_HIGHEST_OPEN_HAND_CARD":0,"SWITCH_OPEN_DECK_CARD_WITH_CLOSED_HAND_CARD":1,"DRAW_CLOSED_DECK_CARD":2,"DISCARD_DRAWN_DECK_CARD_AND_OPEN_CLOSED_HAND_CARD":3,"SWITCH_DRAWN_DECK_CARD_WITH_CLOSED_HAND_CARD":4,"SWITCH_DRAWN_DECK_CARD_WITH_HIGHEST_OPEN_HAND_CARD":5},"outputLookupLength":6,"options":{"inputSize":0,"outputSize":0,"binaryThresh":0.5,"hiddenLayers":[3],"log":true,"logPeriod":10,"activation":"sigmoid","leakyReluAlpha":0.01},"trainOpts":{"activation":"sigmoid","iterations":20000,"errorThresh":0.005,"log":true,"logPeriod":10,"leakyReluAlpha":0.01,"learningRate":0.3,"momentum":0.1,"callbackPeriod":10,"timeout":"Infinity","beta1":0.9,"beta2":0.999,"epsilon":1e-8}}